-276 797 -494 -938 863 587 416
-916 486 -940 -191 286 145 516
-634 919 -540 -19 884 505 10
-817 105 -65 -513 347 584 508
-464 691 -247 -499 344 201 139
-104 220 -786 -644 689 637 741
-893 894 -387 -563 797 233 278
-555 453 -451 -825 495 3 263
-328 35 -103 -849 616 28 243
-358 226 -516 -458 748 589 108
-242 638 -302 -417 402 83 727
-456 987 -841 -64 328 798 818
-899 773 -147 -992 802 122 945
-970 899 -358 -440 323 870 816
-849 291 -286 -207 752 933 962
-107 249 -259 -539 80 64 45
-929 191 -842 -61 401 611 611
-802 836 -366 -335 268 301 737
-872 453 -29 -796 544 4 867
-521 574 -55 -193 773 61 542
-306 365 -846 -6 967 563 239
-166 111 -147 -382 797 804 568
-869 257 -90 -889 367 392 366
-853 725 -744 -346 524 827 165
-376 362 -512 -649 483 29 763
-605 445 -652 -890 722 770 933
-945 554 -907 -157 993 232 495
-5 922 -242 -719 966 326 327
-101 240 -539 -732 584 947 71
-843 349 -231 -536 103 102 436
-653 162 -862 -348 550 40 749
-67 655 -755 -2 109 309 963
-332 418 -339 -504 210 832 593
-443 309 -813 -298 918 929 684
-883 175 -854 -935 103 928 10
-91 394 -766 -164 482 165 399
-267 373 -701 -54 186 824 694
-492 694 -717 -107 254 440 288
-456 436 -268 -761 128 935 979
-479 251 -553 -641 692 603 88
-456 387 -521 -423 70 933 962
-778 446 -524 -415 422 782 842
-962 894 -863 -984 539 689 380
-63 982 -340 -378 642 852 507
-963 124 -237 -337 950 324 852
-651 876 -780 -271 132 278 815
-336 279 -358 -538 132 614 294
-263 122 -630 -121 985 451 108
-957 48 -719 -512 255 277 743
-866 104 -832 -558 854 208 942
-531 542 -863 -852 451 555 164
-582 678 -24 -705 261 479 947
-811 706 -534 -608 170 653 391
-477 34 -492 -91 661 197 343
-243 146 -213 -72 682 660 285
-244 240 -124 -702 123 864 946
-794 513 -53 -675 594 280 942
-712 61 -276 -608 725 515 822
-658 602 -990 -493 802 137 35
-254 493 -936 -241 675 212 742
-682 576 -526 -660 304 33 191
-404 76 -334 -991 164 351 295
-138 925 -331 -717 117 879 245
-77 68 -957 -516 457 116 103
-62 502 -49 -281 584 467 404
-224 956 -124 -79 318 388 990
-282 869 -868 -542 223 708 926
-829 922 -358 -413 605 875 214
-358 777 -931 -721 775 269 253
-619 87 -699 -792 564 809 245
-795 112 -815 -639 173 851 772
-601 738 -717 -130 96 746 135
-58 643 -732 -749 855 909 982
-201 581 -170 -807 736 894 569
-636 303 -511 -986 248 228 889
-422 249 -970 -430 195 494 830
-228 238 -608 -829 34 719 572
-226 813 -834 -40 70 379 169
-26 120 -343 -913 780 965 904
-311 61 -121 -256 428 722 838
-661 984 -786 -68 699 774 822
-922 424 -938 -220 752 513 232
-420 716 -186 -248 602 931 414
-676 807 -41 -961 902 601 975
-793 310 -878 -763 398 891 30
-544 628 -741 -609 678 184 758
-23 452 -340 -137 531 929 464
-800 393 -874 -536 833 197 505
-627 898 -364 -394 562 416 261
-931 266 -230 -229 10 853 946
-381 991 -417 -749 494 80 285
-147 977 -585 -21 894 145 20
-288 332 -71 -520 357 635 828
-93 643 -815 -585 535 335 15
-698 975 -285 -161 19 607 923
-936 405 -18 -715 913 840 640
-623 975 -470 -182 769 917 567
-14 297 -708 -104 452 193 781
-974 892 -943 -483 968 552 925
-101 60 -815 -363 980 603 334
-683 498 -999 -964 992 711 135
-750 842 -935 -617 147 262 860
-794 966 -869 -830 937 213 703
-729 260 -512 -424 901 607 814
-651 50 -591 -990 658 862 651
-550 861 -95 -622 98 305 24
-778 83 -350 -214 113 331 547
-186 637 -643 -907 283 443 865
-593 276 -923 -570 770 166 77
-132 129 -759 -703 262 721 745
-915 773 -931 -465 38 69 585
-493 895 -304 -269 939 731 703
-455 510 -784 -894 968 844 687
-604 215 -783 -629 510 532 917
-772 475 -177 -446 29 486 51
-736 575 -297 -497 425 566 596
-556 684 -878 -442 770 847 145
-210 187 -674 -415 965 976 481
-278 718 -543 -94 624 872 856
-567 888 -662 -582 754 304 176
-427 661 -416 -678 810 231 501
-205 224 -341 -383 237 591 94
-227 437 -121 -794 691 584 924
-919 72 -621 -61 176 993 754
-205 841 -335 -538 752 849 524
-590 244 -895 -345 271 148 951
-936 667 -988 -421 24 895 100
-878 765 -755 -29 619 84 366
-32 410 -566 -993 658 410 168
-111 206 -938 -714 378 521 875
-465 473 -713 -897 745 916 844
-418 99 -914 -508 615 28 670
-731 676 -337 -490 342 145 724
-385 601 -259 -471 177 273 24
-105 520 -119 -563 919 354 544
-995 919 -25 -841 292 411 862
-354 734 -249 -938 405 455 571
-918 413 -601 -387 576 671 753
-862 970 -300 -893 672 873 627
-23 251 -635 -363 516 729 1
-68 886 -461 -229 458 470 298
-17 85 -809 -198 755 680 847
-504 193 -402 -762 837 549 73
-201 853 -755 -348 776 361 987
-261 550 -547 -619 705 848 843
-120 766 -930 -828 180 814 648
-913 959 -849 -449 262 788 187
-137 518 -150 -765 835 78 17
-276 487 -322 -980 793 755 283
-927 9 -726 -617 296 751 483
-250 137 -448 -881 746 449 840
-842 407 -261 -821 232 111 713
-94 993 -405 -341 664 951 808
-674 815 -568 -612 356 759 968
-793 596 -559 -748 208 625 630
-519 229 -732 -88 558 318 42
-230 964 -676 -931 729 735 907
-841 168 -241 -559 716 0 293
-553 533 -7 -77 248 133 826
-106 667 -185 -772 652 892 681
-835 144 -232 -949 888 619 913
-772 923 -127 -47 170 911 484
-444 975 -821 -130 220 590 324
-34 577 -564 -43 538 459 843
-426 894 -114 -917 890 977 785
-444 464 -474 -771 375 505 246
-106 779 -92 -779 64 863 717
-875 563 -519 -449 563 75 821
-876 83 -720 -800 423 624 12
-378 41 -47 -452 701 842 216
-828 14 -582 -534 127 132 523
-410 993 -649 -790 600 338 486
-506 116 -784 -338 489 337 38
-700 158 -300 -114 402 507 993
-792 943 -224 -174 236 933 483
-692 813 -816 -409 923 778 950
-622 899 -885 -298 639 202 248
-89 467 -416 -827 78 62 194
-868 278 -26 -151 246 294 360
-412 368 -873 -284 680 137 671
-961 397 -858 -367 546 682 242
-723 964 -705 -534 645 206 538
-975 883 -34 -848 280 264 463
-513 140 -147 -422 569 948 451
-720 918 -794 -102 643 305 987
-745 779 -767 -553 712 755 155
-273 787 -532 -895 127 274 561
-303 178 -695 -607 618 552 193
-946 478 -608 -172 75 783 968
-510 385 -65 -467 77 905 623
-611 505 -983 -734 229 276 685
-630 436 -623 -550 672 360 760
-677 193 -281 -831 762 516 319
-917 662 -349 -952 368 160 873
-598 839 -666 -766 890 364 543
-692 240 -898 -734 592 908 186
-37 8 -359 -920 78 409 747
-630 574 -155 -960 447 534 713
-923 429 -993 -284 75 431 294
-738 435 -568 -136 659 632 420
-571 563 -577 -562 928 87 436
-557 196 -117 -444 16 335 171
-761 586 -435 -836 975 331 647
-322 241 -716 -219 639 226 963
-976 456 -58 -718 285 118 760
-86 870 -336 -986 981 128 931
-961 842 -63 -744 717 326 892
-712 609 -244 -920 248 607 404
-888 846 -853 -629 926 165 200
-540 462 -209 -10 659 284 223
-508 259 -659 -884 406 935 892
-889 345 -899 -205 514 284 17
-756 353 -21 -208 870 599 359
-833 723 -368 -16 7 243 532
-55 725 -622 -70 720 109 788
-368 650 -115 -763 637 685 147
-370 964 -868 -48 851 21 239
-254 39 -905 -885 292 645 53
-979 711 -339 -695 179 420 211
-20 845 -532 -540 668 189 495
-291 627 -675 -379 183 677 801
-15 94 -304 -450 814 957 525
-79 581 -607 -96 411 70 809
-694 421 -909 -147 577 340 257
-249 654 -790 -972 674 899 234
-196 205 -535 -147 677 654 323
-605 713 -310 -725 163 438 177
-851 483 -586 -291 647 663 723
-650 208 -306 -933 962 872 518
-54 385 -134 -97 355 78 995
-377 819 -922 -52 722 336 142
-2 225 -251 -574 398 392 52
-920 387 -348 -829 450 469 107
-827 84 -533 -507 971 168 542
-223 326 -913 -871 200 972 91
-752 276 -529 -352 165 312 539
-395 667 -287 -173 115 438 487
-418 820 -426 -188 634 605 507
-553 10 -770 -300 100 403 738
-53 657 -492 -183 991 903 226
-947 964 -169 -126 850 848 417
-282 89 -614 -67 161 249 307
-457 656 -256 -814 88 919 571
-66 180 -666 -507 575 593 466
-80 696 -309 -860 516 970 953
-374 132 -699 -861 840 711 918
-928 512 -970 -838 937 794 558
-452 949 -222 -220 71 77 553
-648 955 -694 -325 879 426 39
-588 695 -447 -357 777 49 98
-492 820 -677 -991 979 990 625
-382 382 -671 -1000 51 499 915
-992 998 -537 -102 587 3 625
-247 525 -951 -127 969 519 758
-744 460 -425 -18 132 938 292
-260 944 -245 -178 636 54 350
-636 275 -73 -412 926 808 430
-831 560 -246 -890 775 471 284
-604 430 -740 -489 516 112 523
-540 917 -436 -629 250 565 51
-724 588 -633 -443 162 855 362
-199 543 -407 -368 905 725 511
-164 428 -490 -952 471 422 269
-731 675 -536 -699 681 951 682
-419 39 -880 -439 356 250 42
-321 375 -900 -89 689 873 34
-879 460 -727 -947 586 967 289
-811 738 -129 -749 134 292 505
-437 614 -770 -108 921 60 114
-961 776 -126 -274 951 971 490
-758 109 -568 -191 987 10 507
-507 639 -399 -461 680 274 102
-552 538 -716 -408 450 603 185
-153 215 -89 -500 221 576 686
-690 326 -978 -186 935 818 964
-319 666 -636 -129 790 356 880
-555 737 -374 -773 970 426 240
-154 443 -292 -497 784 213 452
-511 888 -21 -510 930 866 841
-427 250 -115 -671 63 364 693
-859 65 -687 -499 676 398 225
-714 388 -807 -393 866 628 488
-504 581 -102 -548 235 520 712
-682 291 -269 -7 832 242 446
-765 128 -406 -811 477 356 952
-246 895 -529 -97 196 298 222
-437 460 -470 -863 469 207 107
-925 973 -261 -844 339 147 740
-675 359 -462 -759 774 811 959
-154 421 -603 -519 933 836 100
-592 872 -91 -863 863 225 321
-680 772 -52 -173 466 499 132
-952 112 -86 -460 36 20 629
-591 204 -704 -27 435 437 344
-157 482 -348 -756 183 759 794
-492 664 -911 -937 356 201 896
-270 392 -314 -338 397 349 835
-561 807 -201 -184 327 781 874
-606 880 -714 -263 482 581 424
-381 656 -740 -496 245 744 184
-773 899 -917 -578 281 212 238
-638 982 -997 -971 934 923 233
-366 18 -206 -717 735 466 166
-135 823 -903 -663 513 295 535
-872 892 -994 -548 440 342 469
-28 62 -559 -740 178 459 572
-525 870 -331 -682 187 595 972
-49 209 -701 -513 614 601 927
-987 782 -628 -229 61 366 239
-890 443 -612 -691 405 232 235
-137 211 -873 -895 21 224 903
-459 514 -111 -777 563 736 620
-383 931 -602 -75 868 54 389
-454 712 -232 -822 998 126 430
-322 554 -927 -476 184 899 231
-852 892 -225 -866 343 755 199
-651 109 -579 -697 455 874 624
-195 836 -790 -355 542 213 536
-571 100 -588 -339 581 688 626
-193 216 -14 -105 834 697 615
-572 518 -583 -953 578 373 244
-831 777 -401 -280 589 852 837
-941 425 -166 -366 460 866 319
-904 38 -125 -209 287 357 606
-336 863 -457 -749 676 676 55
-262 72 -688 -279 313 739 797
-903 748 -399 -562 367 35 622
-50 995 -698 -824 44 471 861
-822 214 -595 -458 326 928 728
-769 4 -94 -134 728 421 483
-740 726 -617 -392 991 485 629
-83 627 -282 -795 854 214 927
-146 474 -394 -314 669 343 94
-343 368 -518 -490 769 376 928
-99 272 -704 -307 333 165 951
-233 448 -510 -595 176 733 246
-834 670 -513 -752 792 241 43
-596 964 -836 -276 355 210 868
-192 687 -545 -685 495 321 294
-812 646 -437 -994 405 504 419
-24 496 -732 -573 972 36 938
-591 403 -49 -178 950 115 722
-458 54 -765 -443 394 554 250
-701 139 -766 -334 189 777 442
-514 424 -421 -224 499 843 61
-777 307 -548 -274 182 244 479
-899 920 -756 -93 672 105 272
-523 910 -763 -385 845 867 510
-950 563 -761 -624 3 305 273
-299 721 -917 -483 473 839 79
-992 397 -896 -88 182 624 717
-264 65 -226 -367 670 337 202
-177 331 -601 -878 437 908 610
-239 311 -582 -630 960 79 118
-771 662 -387 -210 511 666 339
-672 378 -13 -728 980 618 515
-993 200 -645 -548 434 705 956
-832 552 -687 -537 157 419 921
-608 253 -617 -303 625 310 864
-201 986 -328 -977 781 280 858
-638 833 -502 -31 679 935 575
-112 308 -239 -736 502 935 519
-174 752 -399 -400 121 181 870
-403 456 -384 -790 840 21 287
-388 139 -632 -812 932 821 767
-317 954 -286 -321 446 454 667
-224 11 -934 -390 380 688 772
-11 615 -263 -725 859 378 426
-904 460 -225 -955 139 284 424
-915 386 -127 -942 530 676 857
-20 119 -47 -276 193 757 351
-101 671 -190 -64 781 930 800
-404 74 -309 -70 393 319 568
-205 944 -395 -404 829 428 566
-355 267 -787 -432 870 996 736
-324 878 -497 -531 326 594 86
-149 862 -733 -277 293 627 571
-643 313 -402 -476 344 534 20
-548 970 -283 -23 77 992 667
-166 704 -468 -15 788 144 764
-973 146 -633 -849 347 481 855
-633 57 -395 -3 937 325 942
-768 633 -524 -591 17 165 483
-955 775 -714 -699 284 612 671
-33 402 -769 -778 86 15 550
-500 312 -686 -553 507 431 24
-95 932 -293 -625 827 666 467
-72 298 -406 -496 604 23 952
-446 594 -910 -359 376 641 979
-310 883 -248 -425 193 198 41
-728 552 -894 -124 144 66 239
-245 724 -168 -778 740 207 337
-648 599 -857 -241 551 92 591
-497 14 -821 -319 483 371 296
-984 504 -506 -580 447 263 405
-444 595 -861 -594 605 369 806
-434 652 -836 -221 453 143 751
-969 961 -686 -948 689 468 848
-125 356 -175 -482 420 649 602
-951 995 -330 -315 794 346 826
-535 57 -207 -836 231 18 46
-569 162 -808 -457 807 775 267
-597 516 -738 -139 216 716 197
-522 332 -802 -708 250 228 577
-855 360 -640 -855 321 17 384
-568 722 -424 -311 563 51 792
-823 887 -374 -422 675 44 935
-47 207 -652 -73 291 219 586
-257 35 -14 -989 384 4 916
-149 131 -423 -435 486 964 591
-474 565 -491 -60 734 371 742
-884 380 -695 -615 560 299 409
-803 336 -192 -233 878 94 521
-232 818 -542 -323 434 817 373
-783 16 -637 -586 129 223 885
-563 863 -797 -49 862 627 464
-456 873 -983 -59 979 489 374
-708 252 -372 -557 749 783 413
-279 372 -508 -448 34 317 637
-279 737 -872 -1 652 865 981
-255 996 -968 -632 830 640 227
-405 412 -954 -538 714 595 431
-117 989 -511 -601 924 908 179
-760 800 -467 -908 341 910 401
-195 748 -994 -689 161 61 351
-633 521 -731 -934 16 228 842
-810 656 -805 -172 499 114 985
-552 754 -216 -682 574 765 879
-253 13 -732 -139 212 607 322
-798 228 -917 -614 338 524 374
-562 499 -838 -920 898 269 620
-228 983 -69 -22 650 548 748
-716 181 -227 -981 693 193 730
-648 905 -816 -784 779 155 666
-933 598 -767 -721 783 645 147
-268 289 -124 -324 375 85 937
-504 122 -624 -144 598 59 148
-494 739 -433 -248 84 211 293
-817 160 -402 -550 430 486 207
-865 475 -373 -649 515 438 143
-870 792 -318 -930 410 148 84
-658 584 -455 -942 558 689 442
-165 162 -226 -819 449 56 403
-699 73 -769 -651 299 736 41
-344 27 -247 -15 825 376 974
-366 995 -758 -212 178 619 153
-170 663 -439 -291 846 45 619
-379 329 -994 -339 563 522 603
-322 387 -711 -200 978 452 631
-45 224 -26 -654 726 118 376
-659 120 -94 -842 931 758 980
-349 415 -44 -822 504 459 665
-84 645 -714 -63 100 379 466
-623 322 -356 -242 149 369 671
-313 930 -136 -272 134 831 829
-740 142 -671 -894 512 340 216
-696 496 -807 -559 823 715 299
-710 195 -771 -651 507 66 340
-905 307 -678 -657 488 551 567
-494 874 -516 -363 385 206 153
-478 289 -576 -497 426 806 186
-617 495 -290 -94 955 8 918
-8 246 -610 -978 514 715 805
-178 617 -66 -649 804 332 780
-653 558 -511 -444 22 432 311
-106 573 -549 -901 558 350 57
-384 435 -309 -195 209 370 305
-799 263 -861 -961 947 754 810
-796 275 -760 -469 78 906 282
-196 464 -840 -431 220 346 391
-671 441 -855 -734 81 937 10
-645 416 -88 -290 932 106 934
-68 373 -852 -14 261 491 844
-724 669 -174 -308 516 28 801
-71 151 -937 -269 600 463 669
-765 55 -226 -50 381 54 446
-501 929 -391 -695 461 911 345
-558 21 -179 -52 597 379 418
-543 47 -80 -964 502 754 280
-547 550 -402 -896 142 993 512
-475 323 -246 -536 605 395 628
-438 484 -811 -823 879 9 692
-503 889 -434 -773 1 310 200
-123 832 -537 -307 635 934 763
-450 896 -312 -203 308 96 463
-349 465 -160 -738 886 5 682
-201 987 -237 -119 62 65 453
-612 925 -480 -470 368 610 740
-506 305 -10 -985 784 872 536
-42 591 -154 -988 336 255 204
-59 201 -233 -766 875 109 935
-603 433 -322 -188 492 244 842
-566 840 -394 -143 559 761 810
-853 920 -78 -658 430 303 964
-544 379 -867 -441 579 312 30
-307 77 -567 -422 769 143 135
-170 937 -183 -645 620 472 643
-89 119 -659 -592 101 351 675
-762 702 -238 -612 303 587 828
-262 182 -774 -742 343 728 418
-175 145 -971 -51 637 612 647
-813 655 -97 -458 949 703 842
-774 816 -374 -546 976 268 61
-872 937 -433 -515 298 756 518
-945 572 -828 -444 236 283 195
-15 617 -11 -216 401 515 538
-285 781 -800 -101 91 909 293
-577 267 -671 -719 161 49 817
-637 57 -237 -178 714 877 552
-156 333 -605 -915 256 954 999
-317 179 -25 -718 464 882 249
-404 509 -440 -358 708 752 667
-139 946 -426 -270 213 370 543
-333 642 -567 -884 389 974 588
-772 335 -428 -125 605 457 788
-244 645 -284 -280 116 690 693
-597 152 -516 -184 150 933 274
-62 80 -158 -891 161 292 839
-497 142 -142 -761 547 277 252
-391 105 -18 -211 490 782 828
-261 565 -65 -901 723 751 61
-67 839 -575 -59 950 41 366
-856 314 -803 -213 197 69 66
-637 986 -477 -402 790 462 599
-56 580 -239 -814 123 586 109
-297 253 -975 -632 829 23 807
-643 705 -152 -619 719 656 356
-630 742 -178 -29 437 510 689
-942 191 -899 -56 490 332 894
-184 41 -800 -983 470 211 365
-865 394 -105 -131 25 195 317
-652 176 -81 -232 177 833 121
-153 256 -696 -917 18 294 979
-477 634 -355 -894 2 877 207
-989 41 -644 -4 472 703 92
-383 828 -691 -762 401 965 645
-477 74 -992 -458 113 585 329
-127 529 -318 -322 768 167 407
-311 980 -962 -793 546 861 987
-215 822 -127 -217 584 773 625
-4 75 -786 -277 349 536 160
-996 362 -91 -268 341 506 763
-418 780 -222 -808 680 691 77
-768 311 -591 -788 974 504 628
-712 958 -511 -636 627 418 876
-28 813 -622 -54 551 115 53
-7 591 -487 -807 882 468 173
-531 92 -43 -775 768 125 347
-938 266 -468 -734 770 512 646
-288 724 -90 -112 127 359 724
-523 660 -37 -883 836 352 81
-689 761 -911 -100 803 308 508
-689 165 -388 -112 242 156 169
-704 694 -956 -758 866 845 852
-517 891 -722 -123 549 193 170
-422 439 -865 -145 539 982 803
-737 925 -663 -436 683 291 257
-402 29 -534 -748 774 343 364
-739 120 -273 -136 507 999 75
-423 509 -450 -539 866 956 655
-874 281 -342 -740 301 911 954
-439 64 -203 -664 314 629 610
-212 25 -780 -155 598 134 5
-143 575 -613 -227 609 334 642
-50 846 -109 -920 886 935 730
-134 591 -160 -879 735 343 830
-740 314 -367 -828 122 714 891
-814 610 -841 -236 193 368 174
-410 1 -179 -713 560 679 266
-391 264 -915 -1000 485 384 788
-866 500 -12 -143 717 744 176
-509 458 -983 -268 86 242 966
-104 264 -740 -342 820 621 899
-250 262 -625 -93 161 40 955
-868 530 -484 -420 404 901 165
-117 736 -155 -294 212 320 612
-487 934 -234 -955 256 455 219
-721 915 -231 -721 637 225 329
-987 183 -823 -122 979 936 512
-695 191 -606 -154 905 478 461
-606 540 -33 -437 629 123 515
-336 245 -338 -22 273 272 270
-268 975 -119 -232 272 814 861
-925 743 -858 -883 892 561 661
-442 475 -484 -868 219 589 293
-867 901 -681 -476 321 87 878
-781 99 -760 -502 575 289 150
-837 521 -989 -333 748 548 368
-391 811 -124 -463 379 694 108
-596 902 -618 -72 369 196 374
-253 0 -848 -912 227 130 396
-660 513 -911 -140 338 620 789
-226 227 -944 -95 489 441 14
-804 883 -661 -903 50 727 326
-194 108 -718 -110 347 177 842
-537 331 -449 -312 151 349 562
-333 150 -366 -57 299 476 611
-313 175 -399 -465 602 817 786
-748 380 -862 -524 341 552 610
-123 283 -92 -961 291 68 4
-758 590 -544 -860 456 529 937
-451 352 -867 -23 332 851 396
-830 55 -245 -439 50 880 874
-928 928 -16 -707 868 951 856
-911 570 -934 -747 753 564 361
-79 595 -852 -871 929 738 209
-855 367 -997 -355 827 391 136
-760 191 -454 -227 557 303 275
-879 653 -993 -551 763 529 180
-267 156 -450 -342 936 862 353
-861 513 -780 -434 743 421 174
-485 607 -974 -40 416 679 565
-287 271 -464 -339 738 131 304
-990 807 -659 -549 173 490 944
-436 678 -94 -691 59 890 820
-420 15 -432 -102 230 442 555
-644 102 -768 -228 944 872 307
-370 725 -806 -553 966 260 561
-758 575 -711 -572 302 301 259
-839 713 -193 -826 873 106 721
-906 534 -442 -180 196 607 95
-844 334 -968 -116 144 589 653
-250 174 -490 -15 236 19 752
-415 185 -792 -973 134 946 318
-424 448 -638 -504 212 249 456
-604 67 -296 -15 31 969 630
-992 90 -864 -182 837 587 754
-754 215 -525 -149 558 208 628
-513 430 -56 -550 752 453 225
-411 981 -974 -320 213 832 438
-20 950 -15 -854 971 603 165
-870 266 -550 -586 334 576 545
-780 769 -143 -7 611 619 639
-209 482 -527 -267 297 589 944
-891 575 -151 -213 833 802 249
-926 928 -350 -652 868 136 91
-282 182 -630 -736 517 546 644
-439 773 -281 -763 748 530 864
-826 473 -793 -515 723 704 748
-704 379 -980 -911 691 966 558
-467 281 -759 -290 211 950 58
-926 92 -652 -907 725 63 337
-817 128 -159 -794 644 773 9
-259 2 -937 -455 381 18 572
-981 433 -723 -572 862 44 499
-588 445 -992 -143 243 976 966
-667 883 -244 -63 729 9 467
-484 674 -775 -937 138 302 933
-279 147 -108 -902 113 306 901
-496 649 -328 -969 530 356 852
-847 12 -921 -897 990 206 681
-415 527 -5 -166 605 554 651
-772 336 -261 -42 953 104 937
-208 281 -54 -41 206 311 340
-243 675 -733 -699 709 394 397
-452 766 -107 -240 785 631 848
-1 333 -166 -261 202 504 820
-117 377 -437 -497 277 576 323
-117 170 -138 -88 891 525 861
-662 289 -971 -462 685 948 566
-955 299 -371 -902 468 543 401
-376 104 -721 -400 284 663 801
-822 751 -307 -502 801 712 496
-959 56 -341 -2 154 525 102
-169 117 -561 -329 285 809 843
-733 591 -381 -219 568 642 465
-849 324 -185 -741 633 761 279
-685 817 -350 -174 181 849 376
-445 82 -844 -107 410 735 22
-447 532 -79 -936 739 269 277
-399 324 -874 -646 243 766 432
-468 899 -817 -606 999 564 689
-30 841 -229 -689 326 647 155
-205 417 -545 -490 867 818 636
-833 726 -412 -656 979 503 158
-145 26 -378 -316 624 929 768
-59 401 -79 -904 887 925 898
-720 627 -458 -870 368 442 418
-591 821 -425 -467 880 290 531
-641 830 -152 -472 381 464 79
-216 503 -409 -110 398 736 386
-734 948 -176 -196 709 59 955
-789 769 -532 -384 977 100 474
-693 388 -797 -559 41 435 20
-564 809 -898 -462 942 591 526
-805 743 -401 -986 532 813 626
-135 424 -965 -981 753 872 41
-657 981 -574 -986 857 216 295
-5 550 -635 -397 921 783 865
-316 373 -726 -571 88 791 702
-572 3 -67 -398 375 547 651
-33 350 -943 -506 555 781 239
-876 841 -215 -225 259 803 428
-821 459 -637 -650 800 408 934
-322 512 -130 -272 210 254 729
-715 300 -206 -632 309 485 66
-529 0 -344 -542 874 338 762
-345 147 -704 -565 567 401 614
-667 826 -708 -98 753 971 8
-320 59 -857 -222 619 304 13
-742 287 -301 -541 159 790 547
-121 716 -209 -355 814 293 0
-577 166 -251 -504 148 436 258
-757 210 -307 -276 68 967 336
-739 248 -12 -419 73 312 559
-573 750 -97 -777 714 511 645
-759 616 -606 -922 490 701 242
-600 720 -201 -242 814 111 838
-85 81 -217 -500 526 373 926
-800 589 -232 -863 341 264 992
-765 728 -93 -546 347 154 196
-982 961 -896 -748 209 779 121
-293 574 -792 -240 732 505 491
-926 489 -336 -547 363 36 425
-185 95 -39 -937 560 669 651
-832 627 -542 -909 740 657 390
-501 149 -58 -742 240 275 29
-894 842 -418 -260 63 125 228
-568 294 -841 -757 950 836 163
-238 475 -298 -743 616 950 93
-474 484 -512 -388 581 225 232
-489 232 -104 -398 870 351 169
-241 616 -690 -577 192 145 161
-923 51 -445 -127 935 458 497
-322 957 -334 -780 343 999 446
-140 377 -975 -885 764 969 267
-339 62 -290 -932 708 129 479
-967 553 -926 -612 677 822 818
-295 811 -562 -332 168 357 793
-828 850 -8 -722 964 416 912
-610 240 -283 -672 808 155 759
-967 127 -926 -305 191 466 291
-976 280 -142 -577 646 922 0
-422 599 -13 -837 712 284 3
-932 118 -961 -929 198 950 693
-422 382 -597 -75 878 432 80
-563 798 -847 -365 113 368 199
-406 180 -508 -642 937 277 908
-883 144 -962 -582 573 673 571
-804 308 -827 -846 386 913 707
-454 158 -866 -455 744 33 286
-975 806 -574 -343 107 345 78
-244 920 -183 -268 13 409 288
-342 503 -32 -928 385 739 700
-301 461 -534 -813 530 695 700
-971 524 -962 -48 809 921 405
-356 818 -871 -162 663 630 332
-899 113 -96 -51 728 301 400
-686 262 -339 -729 555 380 463
-413 713 -568 -752 619 45 532
-463 396 -953 -217 593 865 342
-290 429 -880 -13 465 615 710
-181 877 -114 -557 698 671 609
-733 39 -119 -400 178 341 834
-471 987 -473 -687 58 299 571
-542 397 -65 -874 971 468 308
-880 711 -320 -264 174 470 756
-776 795 -919 -277 661 589 319
-294 501 -400 -333 603 953 762
-961 412 -820 -3 194 585 761
-266 203 -174 -866 451 174 306
-972 890 -152 -468 106 356 572
-102 52 -38 -672 692 497 624
-642 374 -689 -195 334 206 529
-964 522 -905 -878 584 967 310
-582 524 -714 -817 677 407 666
-317 107 -946 -525 192 260 9
-189 113 -141 -5 797 890 440
-298 893 -966 -365 794 708 430
-556 854 -62 -47 108 23 946
-822 759 -61 -908 489 81 499
-782 905 -274 -431 492 582 399
-438 432 -85 -603 576 599 222
-344 729 -811 -54 950 560 332
-676 357 -300 -221 733 259 402
-427 963 -190 -66 255 53 415
-910 800 -428 -157 468 839 995
-702 988 -689 -935 941 678 315
-921 628 -641 -909 153 836 789
-80 310 -562 -952 924 749 463
-846 848 -358 -440 364 391 633
-735 272 -204 -689 78 326 848
-419 810 -490 -55 57 929 230
-515 837 -836 -862 128 939 849
-356 32 -717 -598 724 902 681
-31 607 -109 -286 764 214 677
-342 123 -154 -599 552 49 477
-541 689 -147 -522 120 335 529
-739 709 -197 -683 553 507 230
-767 104 -126 -416 517 497 640
-723 99 -409 -186 803 381 217
-684 305 -465 -936 451 292 358
-865 762 -642 -934 841 225 126
-299 872 -233 -707 809 38 66
-772 841 -685 -914 831 859 674
-225 18 -197 -29 63 778 95
-195 409 -175 -224 780 854 32
-747 699 -453 -991 50 432 328
-303 982 -667 -224 654 960 101
-309 124 -22 -786 500 939 527
-6 442 -582 -300 207 217 200
-902 210 -239 -371 404 879 490
-134 795 -764 -307 385 653 586
-859 277 -519 -115 459 312 412
-720 989 -635 -845 841 941 322
-784 337 -658 -634 303 363 273
-908 662 -146 -955 809 41 29
-825 167 -273 -463 906 294 834
-345 685 -142 -253 900 56 899
-509 229 -459 -362 881 576 569
-153 348 -932 -535 130 817 141
-41 24 -962 -426 203 36 274
-382 81 -628 -138 170 157 383
-379 819 -11 -425 543 162 81
-451 402 -62 -419 637 197 665
-115 589 -320 -163 488 9 578
-833 300 -240 -686 268 602 545
-475 827 -876 -925 203 652 800
-210 412 -225 -469 89 325 991
-334 152 -524 -95 405 512 930
-482 117 -923 -490 825 61 718
-612 232 -569 -419 140 451 268
-316 705 -786 -771 284 352 187
-103 653 -604 -114 385 300 642
-16 861 -806 -661 594 751 502
-267 580 -914 -431 380 599 354
-645 375 -286 -143 788 580 933
-798 569 -704 -575 115 20 295
-42 970 -836 -75 709 114 504
-417 479 -270 -80 93 369 297
-731 352 -380 -348 694 646 621
-844 899 -715 -138 195 7 280
-712 700 -810 -758 958 810 246
-801 839 -946 -381 676 206 66
-452 131 -769 -961 131 472 418
-686 914 -218 -62 305 577 250
-520 716 -883 -382 552 514 708
-103 91 -291 -114 422 851 451
-590 490 -459 -947 897 7 604
-5 797 -121 -862 314 723 670
-985 90 -329 -118 216 46 423
-97 733 -397 -826 484 50 221
-695 329 -104 -919 685 974 405
-462 584 -740 -744 809 942 704
-423 766 -824 -168 531 622 949
-394 811 -974 -79 399 577 418
-891 258 -653 -292 202 698 858
-543 206 -13 -939 790 739 856
-629 362 -617 -785 400 579 756
-795 645 -893 -941 236 308 353
-681 23 -979 -348 792 86 994
-252 501 -846 -977 166 347 219
-856 579 -480 -205 322 593 935
-698 102 -119 -786 336 603 13
-680 467 -715 -683 406 925 332
-93 368 -359 -392 565 754 284
-933 672 -208 -626 922 534 469
-74 785 -299 -795 300 840 629
-329 843 -881 -522 611 241 212
-419 218 -190 -336 642 387 596
-850 615 -818 -585 450 860 871
-855 758 -521 -874 926 223 800
-990 735 -998 -265 679 415 253
-147 254 -729 -765 524 711 945
-719 402 -627 -356 981 357 216
-438 58 -714 -298 401 703 818
-69 590 -976 -713 176 712 687
-658 36 -137 -237 619 688 780
-631 711 -885 -843 965 749 11
-714 998 -499 -640 259 327 573
-697 926 -917 -734 132 371 114
-55 894 -412 -294 790 931 163
-113 48 -659 -142 436 605 351
-611 41 -952 -757 872 985 629
-259 627 -359 -19 402 717 73
-263 783 -765 -426 553 814 936
-958 703 -953 -22 637 722 914
-411 522 -478 -258 935 283 942
-802 529 -58 -16 762 596 938
-855 509 -506 -800 889 977 857
-483 717 -368 -710 108 241 489
-361 839 -127 -524 798 706 408
-822 79 -93 -866 12 359 44
-291 846 -22 -910 757 666 256
-337 858 -710 -646 773 383 949
-336 808 -653 -669 18 698 429
-474 735 -255 -525 353 129 353
-578 83 -394 -471 220 882 815
-314 825 -19 -804 748 136 588
-153 760 -115 -397 24 261 621
-583 427 -55 -919 61 792 455
-533 42 -907 -24 191 381 329
-663 582 -140 -563 842 685 545
-650 307 -818 -574 329 136 765
-303 595 -874 -443 512 481 302
-792 618 -331 -402 297 487 663
-867 961 -944 -63 991 278 375
-799 648 -604 -983 514 561 951
-218 529 -457 -98 818 544 211
-468 353 -280 -164 602 204 9
-94 169 -22 -420 473 303 141
-439 862 -997 -772 908 307 765
-957 497 -998 -541 539 895 936
-554 202 -254 -494 560 937 945
-59 320 -925 -563 849 349 688
-647 828 -726 -622 856 342 304
-145 410 -386 -928 475 118 631
-429 480 -778 -157 605 98 120
-529 871 -241 -796 725 266 438
-263 345 -579 -763 615 185 79
-165 590 -772 -856 912 297 561
-159 455 -501 -531 399 59 419
-354 96 -36 -253 883 798 51
-157 563 -636 -133 78 3 298
-709 238 -420 -707 79 751 907
-152 472 -676 -105 214 765 437
-671 147 -931 -62 975 83 840
-928 896 -921 -555 110 719 989
-561 223 -787 -505 246 207 429
-44 667 -27 -871 804 822 375
-62 944 -665 -587 936 988 522
-177 365 -350 -98 298 694 646
-438 415 -565 -142 776 153 981
-711 89 -767 -280 96 707 727
-819 468 -103 -511 913 860 353
-707 62 -976 -1000 600 620 275
-707 193 -743 -216 895 42 731
-524 815 -661 -447 626 396 438
-558 752 -393 -5 772 680 475
-348 607 -867 -233 477 417 297
-680 882 -745 -413 369 207 931
-953 923 -161 -187 291 681 647
-996 309 -184 -209 345 545 614
-295 677 -522 -767 708 564 296
-444 287 -80 -642 231 870 650
-301 141 -815 -919 273 223 69
-533 222 -500 -542 595 574 598
-325 825 -542 -835 972 900 660
-141 937 -296 -600 240 351 398
-843 583 -484 -906 981 58 158
-977 820 -346 -417 382 359 462
-251 875 -776 -451 241 717 437
-438 336 -662 -435 862 40 990
-509 480 -912 -941 97 126 354
-600 736 -229 -361 316 86 0
-862 34 -264 -988 900 246 818
-100 545 -833 -103 763 3 886
-42 738 -149 -950 467 438 210
-972 366 -75 -58 818 13 512
-73 200 -963 -600 839 540 694
-125 956 -962 -364 74 459 711
-434 912 -161 -89 655 532 978
-504 64 -782 -355 148 73 282
-132 432 -803 -825 385 908 959
-615 163 -130 -477 297 968 954
-285 457 -800 -400 389 747 42
-44 895 -567 -617 424 619 655
-868 523 -426 -616 713 875 614
-494 693 -92 -511 790 279 358
-943 780 -253 -516 20 522 981
-13 635 -302 -123 315 871 356
-336 132 -328 -217 672 14 201
-505 213 -420 -823 603 698 355
-542 238 -165 -198 619 911 732
-969 639 -218 -785 213 863 322
-858 71 -146 -146 307 243 766
-549 807 -325 -844 471 53 199
-487 874 -894 -741 154 842 650
-109 468 -777 -687 505 330 310
-508 105 -193 -968 689 53 914
-97 145 -42 -433 273 951 252
-266 388 -647 -863 442 450 36
-552 611 -130 -142 640 491 53
-968 867 -147 -135 281 55 870
-252 833 -241 -92 666 269 991
-972 312 -299 -530 409 797 557
-400 163 -270 -663 394 816 4
-108 838 -969 -110 151 707 388
-473 251 -128 -70 238 844 456
-746 380 -314 -616 578 677 643
-487 938 -739 -785 377 777 290
-515 954 -63 -844 25 702 514
-864 383 -347 -821 463 465 849
-214 74 -559 -735 452 871 542
-42 180 -41 -194 221 624 890
-1 74 -205 -786 164 740 176
-695 925 -159 -732 314 458 81
-800 842 -639 -736 776 854 953
-996 195 -996 -832 251 939 502
-228 407 -85 -216 65 987 140
-823 551 -488 -19 41 513 827
-485 892 -577 -589 781 467 133
-359 636 -937 -971 202 227 778
-511 665 -201 -6 6 996 834
-281 27 -887 -355 60 930 150
-140 834 -797 -772 465 831 88
-367 541 -667 -251 99 219 3
-320 153 -583 -260 223 455 783
-996 300 -852 -310 186 165 368
-19 287 -612 -862 591 660 752
